digraph Tree {
node [shape=box] ;
0 [label="total_bows <= 13.5\ngini = 0.5\nsamples = 80\nvalue = [40, 40]"] ;
1 [label="slow <= 2.5\ngini = 0.497\nsamples = 72\nvalue = [39, 33]"] ;
0 -> 1 [labeldistance=2.5, labelangle=45, headlabel="True"] ;
2 [label="bowler <= 3.5\ngini = 0.5\nsamples = 68\nvalue = [35, 33]"] ;
1 -> 2 ;
3 [label="fast <= 1.5\ngini = 0.48\nsamples = 45\nvalue = [27, 18]"] ;
2 -> 3 ;
4 [label="gini = 0.0\nsamples = 2\nvalue = [0, 2]"] ;
3 -> 4 ;
5 [label="batsman <= 2.5\ngini = 0.467\nsamples = 43\nvalue = [27, 16]"] ;
3 -> 5 ;
6 [label="legbreak <= 1.5\ngini = 0.459\nsamples = 42\nvalue = [27, 15]"] ;
5 -> 6 ;
7 [label="slow <= 0.5\ngini = 0.478\nsamples = 38\nvalue = [23, 15]"] ;
6 -> 7 ;
8 [label="fast <= 5.5\ngini = 0.492\nsamples = 16\nvalue = [7, 9]"] ;
7 -> 8 ;
9 [label="total_bows <= 9.5\ngini = 0.459\nsamples = 14\nvalue = [5, 9]"] ;
8 -> 9 ;
10 [label="gini = 0.0\nsamples = 3\nvalue = [0, 3]"] ;
9 -> 10 ;
11 [label="fast <= 3.5\ngini = 0.496\nsamples = 11\nvalue = [5, 6]"] ;
9 -> 11 ;
12 [label="gini = 0.0\nsamples = 2\nvalue = [2, 0]"] ;
11 -> 12 ;
13 [label="allrounder <= 0.5\ngini = 0.444\nsamples = 9\nvalue = [3, 6]"] ;
11 -> 13 ;
14 [label="gini = 0.0\nsamples = 1\nvalue = [1, 0]"] ;
13 -> 14 ;
15 [label="batting_allrounder <= 1.5\ngini = 0.375\nsamples = 8\nvalue = [2, 6]"] ;
13 -> 15 ;
16 [label="batsman <= 1.5\ngini = 0.245\nsamples = 7\nvalue = [1, 6]"] ;
15 -> 16 ;
17 [label="gini = 0.0\nsamples = 6\nvalue = [0, 6]"] ;
16 -> 17 ;
18 [label="gini = 0.0\nsamples = 1\nvalue = [1, 0]"] ;
16 -> 18 ;
19 [label="gini = 0.0\nsamples = 1\nvalue = [1, 0]"] ;
15 -> 19 ;
20 [label="gini = 0.0\nsamples = 2\nvalue = [2, 0]"] ;
8 -> 20 ;
21 [label="total_bows <= 12.5\ngini = 0.397\nsamples = 22\nvalue = [16, 6]"] ;
7 -> 21 ;
22 [label="bowling_allrounder <= 0.5\ngini = 0.305\nsamples = 16\nvalue = [13, 3]"] ;
21 -> 22 ;
23 [label="total_bats <= 7.5\ngini = 0.153\nsamples = 12\nvalue = [11, 1]"] ;
22 -> 23 ;
24 [label="gini = 0.0\nsamples = 8\nvalue = [8, 0]"] ;
23 -> 24 ;
25 [label="allrounder <= 1.5\ngini = 0.375\nsamples = 4\nvalue = [3, 1]"] ;
23 -> 25 ;
26 [label="medium <= 3.5\ngini = 0.5\nsamples = 2\nvalue = [1, 1]"] ;
25 -> 26 ;
27 [label="gini = 0.0\nsamples = 1\nvalue = [0, 1]"] ;
26 -> 27 ;
28 [label="gini = 0.0\nsamples = 1\nvalue = [1, 0]"] ;
26 -> 28 ;
29 [label="gini = 0.0\nsamples = 2\nvalue = [2, 0]"] ;
25 -> 29 ;
30 [label="fast <= 3.0\ngini = 0.5\nsamples = 4\nvalue = [2, 2]"] ;
22 -> 30 ;
31 [label="gini = 0.0\nsamples = 1\nvalue = [0, 1]"] ;
30 -> 31 ;
32 [label="right_hand_bat <= 7.5\ngini = 0.444\nsamples = 3\nvalue = [2, 1]"] ;
30 -> 32 ;
33 [label="gini = 0.0\nsamples = 1\nvalue = [1, 0]"] ;
32 -> 33 ;
34 [label="gini = 0.5\nsamples = 2\nvalue = [1, 1]"] ;
32 -> 34 ;
35 [label="spins <= 5.5\ngini = 0.5\nsamples = 6\nvalue = [3, 3]"] ;
21 -> 35 ;
36 [label="fast <= 4.5\ngini = 0.375\nsamples = 4\nvalue = [1, 3]"] ;
35 -> 36 ;
37 [label="gini = 0.0\nsamples = 3\nvalue = [0, 3]"] ;
36 -> 37 ;
38 [label="gini = 0.0\nsamples = 1\nvalue = [1, 0]"] ;
36 -> 38 ;
39 [label="gini = 0.0\nsamples = 2\nvalue = [2, 0]"] ;
35 -> 39 ;
40 [label="gini = 0.0\nsamples = 4\nvalue = [4, 0]"] ;
6 -> 40 ;
41 [label="gini = 0.0\nsamples = 1\nvalue = [0, 1]"] ;
5 -> 41 ;
42 [label="total_bats <= 5.5\ngini = 0.454\nsamples = 23\nvalue = [8, 15]"] ;
2 -> 42 ;
43 [label="legbreak <= 0.5\ngini = 0.32\nsamples = 5\nvalue = [4, 1]"] ;
42 -> 43 ;
44 [label="gini = 0.0\nsamples = 3\nvalue = [3, 0]"] ;
43 -> 44 ;
45 [label="slow <= 0.5\ngini = 0.5\nsamples = 2\nvalue = [1, 1]"] ;
43 -> 45 ;
46 [label="gini = 0.0\nsamples = 1\nvalue = [1, 0]"] ;
45 -> 46 ;
47 [label="gini = 0.0\nsamples = 1\nvalue = [0, 1]"] ;
45 -> 47 ;
48 [label="legbreak <= 2.5\ngini = 0.346\nsamples = 18\nvalue = [4, 14]"] ;
42 -> 48 ;
49 [label="right_hand_bat <= 10.5\ngini = 0.219\nsamples = 16\nvalue = [2, 14]"] ;
48 -> 49 ;
50 [label="fast <= 2.5\ngini = 0.124\nsamples = 15\nvalue = [1, 14]"] ;
49 -> 50 ;
51 [label="spins <= 5.5\ngini = 0.32\nsamples = 5\nvalue = [1, 4]"] ;
50 -> 51 ;
52 [label="gini = 0.0\nsamples = 1\nvalue = [1, 0]"] ;
51 -> 52 ;
53 [label="gini = 0.0\nsamples = 4\nvalue = [0, 4]"] ;
51 -> 53 ;
54 [label="gini = 0.0\nsamples = 10\nvalue = [0, 10]"] ;
50 -> 54 ;
55 [label="gini = 0.0\nsamples = 1\nvalue = [1, 0]"] ;
49 -> 55 ;
56 [label="gini = 0.0\nsamples = 2\nvalue = [2, 0]"] ;
48 -> 56 ;
57 [label="gini = 0.0\nsamples = 4\nvalue = [4, 0]"] ;
1 -> 57 ;
58 [label="medium <= 4.5\ngini = 0.219\nsamples = 8\nvalue = [1, 7]"] ;
0 -> 58 [labeldistance=2.5, labelangle=-45, headlabel="False"] ;
59 [label="gini = 0.0\nsamples = 7\nvalue = [0, 7]"] ;
58 -> 59 ;
60 [label="gini = 0.0\nsamples = 1\nvalue = [1, 0]"] ;
58 -> 60 ;
}